Language model created by QuickLM on Sun Apr  9 16:42:23 EDT 2023
Copyright (c) 1996-2010 Carnegie Mellon University and Alexander I. Rudnicky

The model is in standard ARPA format, designed by Doug Paul while he was at MITRE.

The code that was used to produce this language model is available in Open Source.
Please visit http://www.speech.cs.cmu.edu/tools/ for more information

The (fixed) discount mass is 0.5. The backoffs are computed using the ratio method.
This model based on a corpus of 1 sentences and 17 words

\data\
ngram 1=17
ngram 2=16
ngram 3=15

\1-grams:
-1.5315 </s> -0.3010
-1.5315 <s> -0.2881
-1.5315 AMAZON -0.2881
-1.5315 APPLESTORE -0.2881
-1.5315 BITCOIN -0.2881
-1.5315 CHATGPT -0.2881
-1.5315 FACEBOOK -0.2881
-1.5315 FLIPKART -0.2881
-1.5315 GFG -0.2881
-1.5315 GOOGLE -0.2881
-1.5315 INSTAGRAM -0.2881
-1.5315 OPEN -0.2881
-1.5315 PLAYSONG -0.2881
-1.5315 PRIMEMINISTER -0.2881
-1.5315 SPOTIFY -0.2881
-1.5315 TWITTER -0.2881
-1.5315 YOUTUBE -0.2881

\2-grams:
-0.3010 <s> OPEN 0.0000
-0.3010 AMAZON FLIPKART 0.0000
-0.3010 APPLESTORE BITCOIN 0.0000
-0.3010 BITCOIN PRIMEMINISTER 0.0000
-0.3010 CHATGPT FACEBOOK 0.0000
-0.3010 FACEBOOK INSTAGRAM 0.0000
-0.3010 FLIPKART CHATGPT 0.0000
-0.3010 GFG APPLESTORE 0.0000
-0.3010 GOOGLE YOUTUBE 0.0000
-0.3010 INSTAGRAM TWITTER 0.0000
-0.3010 OPEN GOOGLE 0.0000
-0.3010 PLAYSONG </s> -0.3010
-0.3010 PRIMEMINISTER PLAYSONG 0.0000
-0.3010 SPOTIFY AMAZON 0.0000
-0.3010 TWITTER GFG 0.0000
-0.3010 YOUTUBE SPOTIFY 0.0000

\3-grams:
-0.3010 <s> OPEN GOOGLE
-0.3010 AMAZON FLIPKART CHATGPT
-0.3010 APPLESTORE BITCOIN PRIMEMINISTER
-0.3010 BITCOIN PRIMEMINISTER PLAYSONG
-0.3010 CHATGPT FACEBOOK INSTAGRAM
-0.3010 FACEBOOK INSTAGRAM TWITTER
-0.3010 FLIPKART CHATGPT FACEBOOK
-0.3010 GFG APPLESTORE BITCOIN
-0.3010 GOOGLE YOUTUBE SPOTIFY
-0.3010 INSTAGRAM TWITTER GFG
-0.3010 OPEN GOOGLE YOUTUBE
-0.3010 PRIMEMINISTER PLAYSONG </s>
-0.3010 SPOTIFY AMAZON FLIPKART
-0.3010 TWITTER GFG APPLESTORE
-0.3010 YOUTUBE SPOTIFY AMAZON

\end\
